
// Normalization Constants
const float SCALER_MEANS[3] = {133.13338272721649f, 100.7890008052835f, 82.51211935067009f};
const float SCALER_SCALES[3] = {118.11124552919789f, 79.99734044678205f, 9.780553862809722f};

#pragma once
#include <cstdarg>
namespace Eloquent {
    namespace ML {
        namespace Port {
            class StressPredictorRF {
                public:
                    /**
                    * Predict class for features vector
                    */
                    int predict(float *x) {
                        uint8_t votes[3] = { 0 };
                        // tree #1
                        if (x[0] <= -0.3835549056529999) {
                            if (x[1] <= -0.7806750237941742) {
                                if (x[2] <= 0.7181828618049622) {
                                    if (x[2] <= -0.18528961669653654) {
                                        votes[0] += 1;
                                    }

                                    else {
                                        votes[1] += 1;
                                    }
                                }

                                else {
                                    votes[2] += 1;
                                }
                            }

                            else {
                                if (x[2] <= 0.7664568424224854) {
                                    if (x[0] <= -0.4452897161245346) {
                                        if (x[0] <= -0.5485524535179138) {
                                            votes[1] += 1;
                                        }

                                        else {
                                            votes[1] += 1;
                                        }
                                    }

                                    else {
                                        if (x[0] <= -0.43459464609622955) {
                                            votes[0] += 1;
                                        }

                                        else {
                                            votes[1] += 1;
                                        }
                                    }
                                }

                                else {
                                    votes[2] += 1;
                                }
                            }
                        }

                        else {
                            if (x[2] <= -0.37235893309116364) {
                                votes[0] += 1;
                            }

                            else {
                                if (x[1] <= 0.30354584753513336) {
                                    if (x[1] <= -0.1105688028037548) {
                                        votes[1] += 1;
                                    }

                                    else {
                                        if (x[0] <= -0.09258712455630302) {
                                            votes[1] += 1;
                                        }

                                        else {
                                            votes[1] += 1;
                                        }
                                    }
                                }

                                else {
                                    if (x[2] <= 0.7763124406337738) {
                                        votes[1] += 1;
                                    }

                                    else {
                                        votes[2] += 1;
                                    }
                                }
                            }
                        }

                        // tree #2
                        if (x[2] <= -0.37235893309116364) {
                            votes[0] += 1;
                        }

                        else {
                            if (x[2] <= 0.7664568424224854) {
                                votes[1] += 1;
                            }

                            else {
                                votes[2] += 1;
                            }
                        }

                        // tree #3
                        if (x[1] <= -0.7752198576927185) {
                            if (x[1] <= -0.8786053359508514) {
                                votes[2] += 1;
                            }

                            else {
                                if (x[1] <= -0.8691432774066925) {
                                    if (x[0] <= -0.7690904438495636) {
                                        votes[1] += 1;
                                    }

                                    else {
                                        if (x[2] <= 0.9612316787242889) {
                                            votes[1] += 1;
                                        }

                                        else {
                                            votes[2] += 1;
                                        }
                                    }
                                }

                                else {
                                    if (x[2] <= 0.6006598025560379) {
                                        if (x[2] <= -0.2705240324139595) {
                                            votes[0] += 1;
                                        }

                                        else {
                                            votes[1] += 1;
                                        }
                                    }

                                    else {
                                        votes[2] += 1;
                                    }
                                }
                            }
                        }

                        else {
                            if (x[1] <= 1.420291244983673) {
                                if (x[0] <= -0.399464413523674) {
                                    if (x[1] <= -0.7383980453014374) {
                                        if (x[2] <= 1.0952992737293243) {
                                            votes[1] += 1;
                                        }

                                        else {
                                            votes[2] += 1;
                                        }
                                    }

                                    else {
                                        if (x[0] <= -0.7250645160675049) {
                                            votes[2] += 1;
                                        }

                                        else {
                                            votes[1] += 1;
                                        }
                                    }
                                }

                                else {
                                    if (x[1] <= -0.2886938005685806) {
                                        if (x[0] <= -0.3389262855052948) {
                                            votes[0] += 1;
                                        }

                                        else {
                                            votes[0] += 1;
                                        }
                                    }

                                    else {
                                        if (x[1] <= 0.21000932902097702) {
                                            votes[1] += 1;
                                        }

                                        else {
                                            votes[1] += 1;
                                        }
                                    }
                                }
                            }

                            else {
                                if (x[1] <= 1.5758984088897705) {
                                    if (x[2] <= -0.15228094905614853) {
                                        votes[0] += 1;
                                    }

                                    else {
                                        votes[1] += 1;
                                    }
                                }

                                else {
                                    votes[0] += 1;
                                }
                            }
                        }

                        // tree #4
                        if (x[2] <= -0.37235893309116364) {
                            votes[0] += 1;
                        }

                        else {
                            if (x[1] <= -0.7806750237941742) {
                                if (x[0] <= -0.7485184669494629) {
                                    if (x[0] <= -0.8062847852706909) {
                                        if (x[1] <= -0.8940864205360413) {
                                            votes[2] += 1;
                                        }

                                        else {
                                            votes[1] += 1;
                                        }
                                    }

                                    else {
                                        votes[2] += 1;
                                    }
                                }

                                else {
                                    if (x[0] <= -0.6394308507442474) {
                                        if (x[1] <= -0.8577111065387726) {
                                            votes[1] += 1;
                                        }

                                        else {
                                            votes[2] += 1;
                                        }
                                    }

                                    else {
                                        votes[2] += 1;
                                    }
                                }
                            }

                            else {
                                if (x[2] <= 0.7664568424224854) {
                                    votes[1] += 1;
                                }

                                else {
                                    votes[2] += 1;
                                }
                            }
                        }

                        // tree #5
                        if (x[2] <= -0.37235893309116364) {
                            votes[0] += 1;
                        }

                        else {
                            if (x[1] <= -0.7752198576927185) {
                                if (x[0] <= -0.6852082014083862) {
                                    if (x[0] <= -0.8062847852706909) {
                                        if (x[0] <= -0.8430746495723724) {
                                            votes[2] += 1;
                                        }

                                        else {
                                            votes[1] += 1;
                                        }
                                    }

                                    else {
                                        if (x[0] <= -0.733651876449585) {
                                            votes[2] += 1;
                                        }

                                        else {
                                            votes[2] += 1;
                                        }
                                    }
                                }

                                else {
                                    if (x[2] <= 0.8967736065387726) {
                                        votes[1] += 1;
                                    }

                                    else {
                                        votes[2] += 1;
                                    }
                                }
                            }

                            else {
                                if (x[2] <= 0.7664568424224854) {
                                    votes[1] += 1;
                                }

                                else {
                                    votes[2] += 1;
                                }
                            }
                        }

                        // tree #6
                        if (x[1] <= 0.34780798852443695) {
                            if (x[1] <= -0.7752198576927185) {
                                if (x[1] <= -0.8786053359508514) {
                                    votes[2] += 1;
                                }

                                else {
                                    if (x[1] <= -0.8577111065387726) {
                                        if (x[1] <= -0.8754790723323822) {
                                            votes[1] += 1;
                                        }

                                        else {
                                            votes[1] += 1;
                                        }
                                    }

                                    else {
                                        if (x[2] <= 0.6232994645833969) {
                                            votes[0] += 1;
                                        }

                                        else {
                                            votes[2] += 1;
                                        }
                                    }
                                }
                            }

                            else {
                                if (x[1] <= -0.5560829639434814) {
                                    if (x[0] <= -0.6308240592479706) {
                                        if (x[2] <= -0.37235893309116364) {
                                            votes[0] += 1;
                                        }

                                        else {
                                            votes[1] += 1;
                                        }
                                    }

                                    else {
                                        if (x[1] <= -0.6127278506755829) {
                                            votes[1] += 1;
                                        }

                                        else {
                                            votes[1] += 1;
                                        }
                                    }
                                }

                                else {
                                    if (x[0] <= -0.399464413523674) {
                                        if (x[0] <= -0.4363986700773239) {
                                            votes[1] += 1;
                                        }

                                        else {
                                            votes[2] += 1;
                                        }
                                    }

                                    else {
                                        if (x[0] <= -0.346017062664032) {
                                            votes[0] += 1;
                                        }

                                        else {
                                            votes[1] += 1;
                                        }
                                    }
                                }
                            }
                        }

                        else {
                            if (x[0] <= 2.013849914073944) {
                                if (x[1] <= 1.420291244983673) {
                                    if (x[2] <= -0.37235893309116364) {
                                        votes[0] += 1;
                                    }

                                    else {
                                        if (x[0] <= 1.0319494009017944) {
                                            votes[1] += 1;
                                        }

                                        else {
                                            votes[1] += 1;
                                        }
                                    }
                                }

                                else {
                                    if (x[2] <= -0.4281609505414963) {
                                        votes[0] += 1;
                                    }

                                    else {
                                        votes[1] += 1;
                                    }
                                }
                            }

                            else {
                                votes[0] += 1;
                            }
                        }

                        // tree #7
                        if (x[1] <= 1.420291244983673) {
                            if (x[2] <= 0.7664568424224854) {
                                if (x[2] <= -0.37235893309116364) {
                                    votes[0] += 1;
                                }

                                else {
                                    votes[1] += 1;
                                }
                            }

                            else {
                                votes[2] += 1;
                            }
                        }

                        else {
                            if (x[1] <= 1.5750792026519775) {
                                if (x[2] <= -0.4281609505414963) {
                                    votes[0] += 1;
                                }

                                else {
                                    votes[1] += 1;
                                }
                            }

                            else {
                                votes[0] += 1;
                            }
                        }

                        // tree #8
                        if (x[0] <= 0.3049865812063217) {
                            if (x[1] <= -0.7806750237941742) {
                                if (x[2] <= 0.7305049896240234) {
                                    if (x[1] <= -0.804885059595108) {
                                        if (x[0] <= -0.7323547005653381) {
                                            votes[1] += 1;
                                        }

                                        else {
                                            votes[0] += 1;
                                        }
                                    }

                                    else {
                                        votes[1] += 1;
                                    }
                                }

                                else {
                                    votes[2] += 1;
                                }
                            }

                            else {
                                if (x[2] <= -0.37235893309116364) {
                                    votes[0] += 1;
                                }

                                else {
                                    if (x[2] <= 0.7664568424224854) {
                                        votes[1] += 1;
                                    }

                                    else {
                                        votes[2] += 1;
                                    }
                                }
                            }
                        }

                        else {
                            if (x[1] <= 1.3640784621238708) {
                                if (x[2] <= -0.3434572219848633) {
                                    votes[0] += 1;
                                }

                                else {
                                    if (x[1] <= 0.9682094752788544) {
                                        if (x[0] <= 0.4763471186161041) {
                                            votes[1] += 1;
                                        }

                                        else {
                                            votes[2] += 1;
                                        }
                                    }

                                    else {
                                        if (x[1] <= 1.1141460537910461) {
                                            votes[1] += 1;
                                        }

                                        else {
                                            votes[1] += 1;
                                        }
                                    }
                                }
                            }

                            else {
                                if (x[0] <= 2.1120645999908447) {
                                    if (x[2] <= -0.32632604986429214) {
                                        votes[0] += 1;
                                    }

                                    else {
                                        votes[1] += 1;
                                    }
                                }

                                else {
                                    votes[0] += 1;
                                }
                            }
                        }

                        // tree #9
                        if (x[2] <= -0.37235893309116364) {
                            votes[0] += 1;
                        }

                        else {
                            if (x[1] <= -0.7965309321880341) {
                                if (x[0] <= -0.6852082014083862) {
                                    if (x[0] <= -0.8180052936077118) {
                                        votes[2] += 1;
                                    }

                                    else {
                                        if (x[1] <= -0.8786053359508514) {
                                            votes[2] += 1;
                                        }

                                        else {
                                            votes[2] += 1;
                                        }
                                    }
                                }

                                else {
                                    votes[1] += 1;
                                }
                            }

                            else {
                                if (x[1] <= -0.564892053604126) {
                                    if (x[1] <= -0.6403754353523254) {
                                        if (x[0] <= -0.7007194459438324) {
                                            votes[2] += 1;
                                        }

                                        else {
                                            votes[1] += 1;
                                        }
                                    }

                                    else {
                                        if (x[1] <= -0.615568071603775) {
                                            votes[2] += 1;
                                        }

                                        else {
                                            votes[2] += 1;
                                        }
                                    }
                                }

                                else {
                                    if (x[0] <= -0.12738854438066483) {
                                        if (x[0] <= -0.6406051218509674) {
                                            votes[2] += 1;
                                        }

                                        else {
                                            votes[1] += 1;
                                        }
                                    }

                                    else {
                                        if (x[0] <= -0.08615180104970932) {
                                            votes[2] += 1;
                                        }

                                        else {
                                            votes[1] += 1;
                                        }
                                    }
                                }
                            }
                        }

                        // tree #10
                        if (x[0] <= -0.7250645160675049) {
                            if (x[1] <= -0.776411235332489) {
                                if (x[0] <= -0.8062847852706909) {
                                    if (x[0] <= -0.8180052936077118) {
                                        votes[2] += 1;
                                    }

                                    else {
                                        votes[1] += 1;
                                    }
                                }

                                else {
                                    if (x[2] <= 0.6006598025560379) {
                                        votes[1] += 1;
                                    }

                                    else {
                                        votes[2] += 1;
                                    }
                                }
                            }

                            else {
                                if (x[0] <= -0.7485184669494629) {
                                    votes[2] += 1;
                                }

                                else {
                                    if (x[0] <= -0.733651876449585) {
                                        votes[1] += 1;
                                    }

                                    else {
                                        if (x[2] <= 0.7461817264556885) {
                                            votes[1] += 1;
                                        }

                                        else {
                                            votes[2] += 1;
                                        }
                                    }
                                }
                            }
                        }

                        else {
                            if (x[0] <= 1.1098780632019043) {
                                if (x[0] <= -0.40632571280002594) {
                                    if (x[0] <= -0.5473663508892059) {
                                        if (x[2] <= 0.7763124406337738) {
                                            votes[1] += 1;
                                        }

                                        else {
                                            votes[2] += 1;
                                        }
                                    }

                                    else {
                                        if (x[1] <= -0.0656905360519886) {
                                            votes[1] += 1;
                                        }

                                        else {
                                            votes[2] += 1;
                                        }
                                    }
                                }

                                else {
                                    if (x[0] <= 0.58738112449646) {
                                        if (x[1] <= 1.2598882913589478) {
                                            votes[0] += 1;
                                        }

                                        else {
                                            votes[0] += 1;
                                        }
                                    }

                                    else {
                                        if (x[2] <= 0.7181828618049622) {
                                            votes[1] += 1;
                                        }

                                        else {
                                            votes[2] += 1;
                                        }
                                    }
                                }
                            }

                            else {
                                if (x[1] <= 1.1568847298622131) {
                                    if (x[0] <= 1.2098170518875122) {
                                        votes[1] += 1;
                                    }

                                    else {
                                        if (x[2] <= 0.3503013327717781) {
                                            votes[0] += 1;
                                        }

                                        else {
                                            votes[2] += 1;
                                        }
                                    }
                                }

                                else {
                                    if (x[2] <= -0.35611511021852493) {
                                        votes[0] += 1;
                                    }

                                    else {
                                        votes[1] += 1;
                                    }
                                }
                            }
                        }

                        // return argmax of votes
                        uint8_t classIdx = 0;
                        float maxVotes = votes[0];

                        for (uint8_t i = 1; i < 3; i++) {
                            if (votes[i] > maxVotes) {
                                classIdx = i;
                                maxVotes = votes[i];
                            }
                        }

                        return classIdx;
                    }

                protected:
                };
            }
        }
    }