#pragma once
#include <cstdarg>
namespace Eloquent {
    namespace ML {
        namespace Port {
            class StressPredictorRF {
                public:
                    /**
                    * Predict class for features vector
                    */
                    int predict(float *x) {
                        uint8_t votes[3] = { 0 };
                        // tree #1
                        if (x[0] <= 87.83123397827148) {
                            if (x[1] <= 38.337074279785156) {
                                if (x[2] <= 89.53634643554688) {
                                    if (x[2] <= 80.69988632202148) {
                                        votes[0] += 1;
                                    }

                                    else {
                                        votes[1] += 1;
                                    }
                                }

                                else {
                                    votes[2] += 1;
                                }
                            }

                            else {
                                if (x[2] <= 90.00849151611328) {
                                    if (x[0] <= 80.53965759277344) {
                                        if (x[0] <= 68.34316635131836) {
                                            votes[1] += 1;
                                        }

                                        else {
                                            votes[1] += 1;
                                        }
                                    }

                                    else {
                                        if (x[0] <= 81.80286407470703) {
                                            votes[0] += 1;
                                        }

                                        else {
                                            votes[1] += 1;
                                        }
                                    }
                                }

                                else {
                                    votes[2] += 1;
                                }
                            }
                        }

                        else {
                            if (x[2] <= 78.87024307250977) {
                                votes[0] += 1;
                            }

                            else {
                                if (x[1] <= 125.07186126708984) {
                                    if (x[1] <= 91.94379043579102) {
                                        votes[1] += 1;
                                    }

                                    else {
                                        if (x[0] <= 122.19779968261719) {
                                            votes[1] += 1;
                                        }

                                        else {
                                            votes[1] += 1;
                                        }
                                    }
                                }

                                else {
                                    if (x[2] <= 90.10488510131836) {
                                        votes[1] += 1;
                                    }

                                    else {
                                        votes[2] += 1;
                                    }
                                }
                            }
                        }

                        // tree #2
                        if (x[2] <= 78.87024307250977) {
                            votes[0] += 1;
                        }

                        else {
                            if (x[2] <= 90.00849151611328) {
                                votes[1] += 1;
                            }

                            else {
                                votes[2] += 1;
                            }
                        }

                        // tree #3
                        if (x[1] <= 38.77347373962402) {
                            if (x[1] <= 30.502909660339355) {
                                votes[2] += 1;
                            }

                            else {
                                if (x[1] <= 31.25985050201416) {
                                    if (x[0] <= 42.29515075683594) {
                                        votes[1] += 1;
                                    }

                                    else {
                                        if (x[2] <= 91.91349792480469) {
                                            votes[1] += 1;
                                        }

                                        else {
                                            votes[2] += 1;
                                        }
                                    }
                                }

                                else {
                                    if (x[2] <= 88.38690185546875) {
                                        if (x[2] <= 79.86624526977539) {
                                            votes[0] += 1;
                                        }

                                        else {
                                            votes[1] += 1;
                                        }
                                    }

                                    else {
                                        votes[2] += 1;
                                    }
                                }
                            }
                        }

                        else {
                            if (x[1] <= 214.4085235595703) {
                                if (x[0] <= 85.95214462280273) {
                                    if (x[1] <= 41.719120025634766) {
                                        if (x[2] <= 93.22475051879883) {
                                            votes[1] += 1;
                                        }

                                        else {
                                            votes[2] += 1;
                                        }
                                    }

                                    else {
                                        if (x[0] <= 47.495107650756836) {
                                            votes[2] += 1;
                                        }

                                        else {
                                            votes[1] += 1;
                                        }
                                    }
                                }

                                else {
                                    if (x[1] <= 77.69426345825195) {
                                        if (x[0] <= 93.10237884521484) {
                                            votes[0] += 1;
                                        }

                                        else {
                                            votes[0] += 1;
                                        }
                                    }

                                    else {
                                        if (x[1] <= 117.58919143676758) {
                                            votes[1] += 1;
                                        }

                                        else {
                                            votes[1] += 1;
                                        }
                                    }
                                }
                            }

                            else {
                                if (x[1] <= 226.856689453125) {
                                    if (x[2] <= 81.0227279663086) {
                                        votes[0] += 1;
                                    }

                                    else {
                                        votes[1] += 1;
                                    }
                                }

                                else {
                                    votes[0] += 1;
                                }
                            }
                        }

                        // tree #4
                        if (x[2] <= 78.87024307250977) {
                            votes[0] += 1;
                        }

                        else {
                            if (x[1] <= 38.337074279785156) {
                                if (x[0] <= 44.72493553161621) {
                                    if (x[0] <= 37.90208435058594) {
                                        if (x[1] <= 29.264464378356934) {
                                            votes[2] += 1;
                                        }

                                        else {
                                            votes[1] += 1;
                                        }
                                    }

                                    else {
                                        votes[2] += 1;
                                    }
                                }

                                else {
                                    if (x[0] <= 57.60940742492676) {
                                        if (x[1] <= 32.17439079284668) {
                                            votes[1] += 1;
                                        }

                                        else {
                                            votes[2] += 1;
                                        }
                                    }

                                    else {
                                        votes[2] += 1;
                                    }
                                }
                            }

                            else {
                                if (x[2] <= 90.00849151611328) {
                                    votes[1] += 1;
                                }

                                else {
                                    votes[2] += 1;
                                }
                            }
                        }

                        // tree #5
                        if (x[2] <= 78.87024307250977) {
                            votes[0] += 1;
                        }

                        else {
                            if (x[1] <= 38.77347373962402) {
                                if (x[0] <= 52.20259094238281) {
                                    if (x[0] <= 37.90208435058594) {
                                        if (x[0] <= 33.55678462982178) {
                                            votes[2] += 1;
                                        }

                                        else {
                                            votes[1] += 1;
                                        }
                                    }

                                    else {
                                        if (x[0] <= 46.480844497680664) {
                                            votes[2] += 1;
                                        }

                                        else {
                                            votes[2] += 1;
                                        }
                                    }
                                }

                                else {
                                    if (x[2] <= 91.28306198120117) {
                                        votes[1] += 1;
                                    }

                                    else {
                                        votes[2] += 1;
                                    }
                                }
                            }

                            else {
                                if (x[2] <= 90.00849151611328) {
                                    votes[1] += 1;
                                }

                                else {
                                    votes[2] += 1;
                                }
                            }
                        }

                        // tree #6
                        if (x[1] <= 128.6127166748047) {
                            if (x[1] <= 38.77347373962402) {
                                if (x[1] <= 30.502909660339355) {
                                    votes[2] += 1;
                                }

                                else {
                                    if (x[1] <= 32.17439079284668) {
                                        if (x[1] <= 30.753003120422363) {
                                            votes[1] += 1;
                                        }

                                        else {
                                            votes[1] += 1;
                                        }
                                    }

                                    else {
                                        if (x[2] <= 88.60833358764648) {
                                            votes[0] += 1;
                                        }

                                        else {
                                            votes[2] += 1;
                                        }
                                    }
                                }
                            }

                            else {
                                if (x[1] <= 56.3038444519043) {
                                    if (x[0] <= 58.6259651184082) {
                                        if (x[2] <= 78.87024307250977) {
                                            votes[0] += 1;
                                        }

                                        else {
                                            votes[1] += 1;
                                        }
                                    }

                                    else {
                                        if (x[1] <= 51.77240180969238) {
                                            votes[1] += 1;
                                        }

                                        else {
                                            votes[1] += 1;
                                        }
                                    }
                                }

                                else {
                                    if (x[0] <= 85.95214462280273) {
                                        if (x[0] <= 81.58979034423828) {
                                            votes[1] += 1;
                                        }

                                        else {
                                            votes[2] += 1;
                                        }
                                    }

                                    else {
                                        if (x[0] <= 92.26487731933594) {
                                            votes[0] += 1;
                                        }

                                        else {
                                            votes[1] += 1;
                                        }
                                    }
                                }
                            }
                        }

                        else {
                            if (x[0] <= 370.99171447753906) {
                                if (x[1] <= 214.4085235595703) {
                                    if (x[2] <= 78.87024307250977) {
                                        votes[0] += 1;
                                    }

                                    else {
                                        if (x[0] <= 255.01820373535156) {
                                            votes[1] += 1;
                                        }

                                        else {
                                            votes[1] += 1;
                                        }
                                    }
                                }

                                else {
                                    if (x[2] <= 78.32446670532227) {
                                        votes[0] += 1;
                                    }

                                    else {
                                        votes[1] += 1;
                                    }
                                }
                            }

                            else {
                                votes[0] += 1;
                            }
                        }

                        // tree #7
                        if (x[1] <= 214.4085235595703) {
                            if (x[2] <= 90.00849151611328) {
                                if (x[2] <= 78.87024307250977) {
                                    votes[0] += 1;
                                }

                                else {
                                    votes[1] += 1;
                                }
                            }

                            else {
                                votes[2] += 1;
                            }
                        }

                        else {
                            if (x[1] <= 226.79115295410156) {
                                if (x[2] <= 78.32446670532227) {
                                    votes[0] += 1;
                                }

                                else {
                                    votes[1] += 1;
                                }
                            }

                            else {
                                votes[0] += 1;
                            }
                        }

                        // tree #8
                        if (x[0] <= 169.15572357177734) {
                            if (x[1] <= 38.337074279785156) {
                                if (x[2] <= 89.6568603515625) {
                                    if (x[1] <= 36.40033531188965) {
                                        if (x[0] <= 46.634056091308594) {
                                            votes[1] += 1;
                                        }

                                        else {
                                            votes[0] += 1;
                                        }
                                    }

                                    else {
                                        votes[1] += 1;
                                    }
                                }

                                else {
                                    votes[2] += 1;
                                }
                            }

                            else {
                                if (x[2] <= 78.87024307250977) {
                                    votes[0] += 1;
                                }

                                else {
                                    if (x[2] <= 90.00849151611328) {
                                        votes[1] += 1;
                                    }

                                    else {
                                        votes[2] += 1;
                                    }
                                }
                            }
                        }

                        else {
                            if (x[1] <= 209.9116439819336) {
                                if (x[2] <= 79.15291976928711) {
                                    votes[0] += 1;
                                }

                                else {
                                    if (x[1] <= 178.2431869506836) {
                                        if (x[0] <= 189.39533233642578) {
                                            votes[1] += 1;
                                        }

                                        else {
                                            votes[2] += 1;
                                        }
                                    }

                                    else {
                                        if (x[1] <= 189.91771697998047) {
                                            votes[1] += 1;
                                        }

                                        else {
                                            votes[1] += 1;
                                        }
                                    }
                                }
                            }

                            else {
                                if (x[0] <= 382.5919647216797) {
                                    if (x[2] <= 79.32046890258789) {
                                        votes[0] += 1;
                                    }

                                    else {
                                        votes[1] += 1;
                                    }
                                }

                                else {
                                    votes[0] += 1;
                                }
                            }
                        }

                        // tree #9
                        if (x[2] <= 78.87024307250977) {
                            votes[0] += 1;
                        }

                        else {
                            if (x[1] <= 37.06864356994629) {
                                if (x[0] <= 52.20259094238281) {
                                    if (x[0] <= 36.517757415771484) {
                                        votes[2] += 1;
                                    }

                                    else {
                                        if (x[1] <= 30.502909660339355) {
                                            votes[2] += 1;
                                        }

                                        else {
                                            votes[2] += 1;
                                        }
                                    }
                                }

                                else {
                                    votes[1] += 1;
                                }
                            }

                            else {
                                if (x[1] <= 55.599138259887695) {
                                    if (x[1] <= 49.56067085266113) {
                                        if (x[0] <= 50.37053871154785) {
                                            votes[2] += 1;
                                        }

                                        else {
                                            votes[1] += 1;
                                        }
                                    }

                                    else {
                                        if (x[1] <= 51.54519271850586) {
                                            votes[2] += 1;
                                        }

                                        else {
                                            votes[2] += 1;
                                        }
                                    }
                                }

                                else {
                                    if (x[0] <= 118.08736038208008) {
                                        if (x[0] <= 57.47071075439453) {
                                            votes[2] += 1;
                                        }

                                        else {
                                            votes[1] += 1;
                                        }
                                    }

                                    else {
                                        if (x[0] <= 122.9578857421875) {
                                            votes[2] += 1;
                                        }

                                        else {
                                            votes[1] += 1;
                                        }
                                    }
                                }
                            }
                        }

                        // tree #10
                        if (x[0] <= 47.495107650756836) {
                            if (x[1] <= 38.67816734313965) {
                                if (x[0] <= 37.90208435058594) {
                                    if (x[0] <= 36.517757415771484) {
                                        votes[2] += 1;
                                    }

                                    else {
                                        votes[1] += 1;
                                    }
                                }

                                else {
                                    if (x[2] <= 88.38690185546875) {
                                        votes[1] += 1;
                                    }

                                    else {
                                        votes[2] += 1;
                                    }
                                }
                            }

                            else {
                                if (x[0] <= 44.72493553161621) {
                                    votes[2] += 1;
                                }

                                else {
                                    if (x[0] <= 46.480844497680664) {
                                        votes[1] += 1;
                                    }

                                    else {
                                        if (x[2] <= 89.81018829345703) {
                                            votes[1] += 1;
                                        }

                                        else {
                                            votes[2] += 1;
                                        }
                                    }
                                }
                            }
                        }

                        else {
                            if (x[0] <= 264.22247314453125) {
                                if (x[0] <= 85.1417465209961) {
                                    if (x[0] <= 68.48326110839844) {
                                        if (x[2] <= 90.10488510131836) {
                                            votes[1] += 1;
                                        }

                                        else {
                                            votes[2] += 1;
                                        }
                                    }

                                    else {
                                        if (x[1] <= 95.53393173217773) {
                                            votes[1] += 1;
                                        }

                                        else {
                                            votes[2] += 1;
                                        }
                                    }
                                }

                                else {
                                    if (x[0] <= 202.50970458984375) {
                                        if (x[1] <= 201.5767059326172) {
                                            votes[0] += 1;
                                        }

                                        else {
                                            votes[0] += 1;
                                        }
                                    }

                                    else {
                                        if (x[2] <= 89.53634643554688) {
                                            votes[1] += 1;
                                        }

                                        else {
                                            votes[2] += 1;
                                        }
                                    }
                                }
                            }

                            else {
                                if (x[1] <= 193.33670043945312) {
                                    if (x[0] <= 276.02638244628906) {
                                        votes[1] += 1;
                                    }

                                    else {
                                        if (x[2] <= 85.93825912475586) {
                                            votes[0] += 1;
                                        }

                                        else {
                                            votes[2] += 1;
                                        }
                                    }
                                }

                                else {
                                    if (x[2] <= 79.02911376953125) {
                                        votes[0] += 1;
                                    }

                                    else {
                                        votes[1] += 1;
                                    }
                                }
                            }
                        }

                        // return argmax of votes
                        uint8_t classIdx = 0;
                        float maxVotes = votes[0];

                        for (uint8_t i = 1; i < 3; i++) {
                            if (votes[i] > maxVotes) {
                                classIdx = i;
                                maxVotes = votes[i];
                            }
                        }

                        return classIdx;
                    }

                protected:
                };
            }
        }
    }